-2.235347145769417854e-04,-6.170782264096381789e-04,-1.118923346321808870e-03,-1.678259484245152311e-03,-2.253348777073377069e-03,-2.804548329687814399e-03,-3.328493516210734825e-03,-3.828304185281205564e-03,-4.313531118726592582e-03,-4.769475403496528307e-03,-5.197658844882214503e-03,-5.606494777231933388e-03,-6.093199596751626944e-03,-6.561024426066036988e-03,-6.916828711756710726e-03,-7.260280507910020498e-03,-7.593099261401282420e-03,-7.913480651977203642e-03,-8.224276015370480045e-03,-8.520973562580896193e-03,-8.805661046362076722e-03,-9.078012676057902255e-03,-9.342729421519957098e-03,-9.597729348057424184e-03,-9.845066074563337682e-03,-1.008627522790154357e-02,-1.041897600490054171e-02,-1.074750722035330321e-02,-1.097766534177278298e-02,-1.120348320198633757e-02,-1.142534996060947869e-02,-1.164174777610377763e-02,-1.185400939774503871e-02,-1.215595969174442306e-02,-1.200270961509819663e-02,-1.175043924350381921e-02,-1.194742650238275750e-02,-1.214248672032688589e-02,-1.233659389518776059e-02,-1.252956869120518471e-02,-1.272186840100152268e-02,-1.291266300483590035e-02,-1.310188561992642678e-02,-1.328875820722638310e-02,-1.347342212804365086e-02,-1.365552217660446870e-02,-1.371710699712574977e-02,-1.377708938682520139e-02,-1.395505332225068125e-02,-1.422741356050303933e-02,-1.449980426866206117e-02,-1.477211983868966828e-02,-1.492556634210090438e-02,-1.507845383126655420e-02,-1.513554411681361164e-02,-1.519140364563502897e-02,-1.536469205004534384e-02,-1.553664377746236114e-02,-1.570752865877659762e-02,-1.575890817669923019e-02,-1.580994407162872664e-02,-1.597966237235643253e-02,-1.614953148465344754e-02,-1.641446090941512878e-02,-1.667933161180444601e-02,-1.684893682959500566e-02,-1.701797228496835721e-02,-1.728118214772179570e-02,-1.744850093143363381e-02,-1.761495777477575450e-02,-1.778069254360296544e-02,-1.804094666449975251e-02,-1.830097175150490266e-02,-1.856099981290232348e-02,-1.882111331361321221e-02,-1.898629410785214466e-02,-1.924634663015078670e-02,-1.938742239934372613e-02,-1.943304831141512423e-02,-1.959677583579822607e-02,-1.975980168185786576e-02,-1.992219315252651349e-02,-2.008404324937951638e-02,-2.024555217601585119e-02,-2.040688818818569769e-02,-2.056817225478111896e-02,-2.082444102876504152e-02,-2.108065526669126305e-02,-2.169287670516381952e-02,-2.230486251056484209e-02,-2.246527381482268937e-02,-2.262518585750773747e-02,-2.278454410481673895e-02,-2.294341592896237056e-02,-2.310185299949036805e-02,-2.326000776340137605e-02
4.279486808687967708e-04,1.183607352918960480e-03,2.037476867607104954e-03,2.964030725870749668e-03,3.958752155010331238e-03,4.913746246901782959e-03,5.778636008753725364e-03,6.564374926477331909e-03,7.201490267052546371e-03,7.802300215606947954e-03,8.475911837512218466e-03,9.034230812414863546e-03,9.572448481274671919e-03,1.009509718462116810e-02,1.070478773991597604e-02,1.130393434115807560e-02,1.188901732429789408e-02,1.246381274899592898e-02,1.302706411447570808e-02,1.357345354483699071e-02,1.410553688637206614e-02,1.462228149176422048e-02,1.512672030247307238e-02,1.562021749698147381e-02,1.610505395460642628e-02,1.658350804210628401e-02,1.705552339664949749e-02,1.752016552215343928e-02,1.797848978004486925e-02,1.843031929669361468e-02,1.887470494035708990e-02,1.931306020638177967e-02,1.974564503098173371e-02,2.017270461771941692e-02,2.059513520862907635e-02,2.101305722975872065e-02,2.132874746517919584e-02,2.164078320901925007e-02,2.204732211332860112e-02,2.245071158841869044e-02,2.285095222617071833e-02,2.324784960229678982e-02,2.364211363373209390e-02,2.403367003776000002e-02,2.442257135331004150e-02,2.480923755092062991e-02,2.519363119020923830e-02,2.557571204394925787e-02,2.595603551130136466e-02,2.633443797405490144e-02,2.671149818417093910e-02,2.708725454019728432e-02,2.746139735136614995e-02,2.783430726715555720e-02,2.820590498914838165e-02,2.857620835394186071e-02,2.894551740685642749e-02,2.931369573364515924e-02,2.968087796287679700e-02,2.994888475287298471e-02,3.021592786074088835e-02,3.048221238797694035e-02,3.074777627389118501e-02,3.111088345046660389e-02,3.142423379377819875e-02,3.178611993113045903e-02,3.214736544558663422e-02,3.250814677829657467e-02,3.277002378349556239e-02,3.303140859051134637e-02,3.329240510358551924e-02,3.355291640107796458e-02,3.381305742016042087e-02,3.407285521896906422e-02,3.433224618066742923e-02,3.459135657967657429e-02,3.485015446563903552e-02,3.520696834521092056e-02,3.556356096833161035e-02,3.582152608758796403e-02,3.607923958205061510e-02,3.633676649142916770e-02,3.659404090084836247e-02,3.685112751881763904e-02,3.710804521494182051e-02,3.736474768897500576e-02,3.762130997075738281e-02,3.787771347820766132e-02,3.813394275213910500e-02,3.839006268076477352e-02,3.864603354448497424e-02,3.890187044178517600e-02,3.915761509493326936e-02,3.941322476024342741e-02,3.966873666109296814e-02,3.992416495174955227e-02
6.888158925707133689e-04,1.564541035024727498e-03,2.601107135571981230e-03,3.722262877576179314e-03,4.892692323148172852e-03,6.144177586960120063e-03,7.298009576353996913e-03,8.208590627675250301e-03,9.084335533005451213e-03,1.010191127546142438e-02,1.094051123940533582e-02,1.176074478835348325e-02,1.255913212561007852e-02,1.350108079815191472e-02,1.443158627579744190e-02,1.518781057308621167e-02,1.592422004688152579e-02,1.665020873514732463e-02,1.736914596820931037e-02,1.806991825116550932e-02,1.875678272943998026e-02,1.943295908059249066e-02,2.025493028728055783e-02,2.090224895647343692e-02,2.154040990744297834e-02,2.216929387522953779e-02,2.278968698499034620e-02,2.356406772013031753e-02,2.433209743321655683e-02,2.505211681420011632e-02,2.576236541522024248e-02,2.646543114452001508e-02,2.716133897767510075e-02,2.784795908846888698e-02,2.852836678049338465e-02,2.920385951696951449e-02,2.987288562058948785e-02,3.049662318648325987e-02,3.095443879585361990e-02,3.140709811355420211e-02,3.201668052434031297e-02,3.262151268831093437e-02,3.322168646991560670e-02,3.381719237798712363e-02,3.440678545897392360e-02,3.499370574223961694e-02,3.553716740810591163e-02,3.591518327262786803e-02,3.633141071981160763e-02,3.690737591808785495e-02,3.748003830940397491e-02,3.805125622009385145e-02,3.866169946348149700e-02,3.910945210280896561e-02,3.955792077689330305e-02,3.996777871877874727e-02,4.037985770937452951e-02,4.079533677117960083e-02,4.121706393858342449e-02,4.164799558529949652e-02,4.212929395158070134e-02,4.262161651622096287e-02,4.312575806094932213e-02,4.364052680692368652e-02,4.416426665789008332e-02,4.469536698024809129e-02,4.523144300919795108e-02,4.593214755072197453e-02,4.647176607835281498e-02,4.701060586509388933e-02,4.754763799413966319e-02,4.808241596660131623e-02,4.861496348019293118e-02,4.914556948054618624e-02,4.967461474356424378e-02,5.020247988833771713e-02,5.072957528205435107e-02,5.141809687514788119e-02,5.210618032829428259e-02,5.279399796081610252e-02,5.348168785600442704e-02,5.416920695257301799e-02,5.465403780015061497e-02,5.513864670773782617e-02,5.562304552506091432e-02,5.626923241128511943e-02,5.691517032813946803e-02,5.739881534791757556e-02,5.788217243883467256e-02,5.836523131739671660e-02,5.884799460077356353e-02,5.933045016649070302e-02,5.981257211183169803e-02,6.029436556179020718e-02,6.109987479625423462e-02,6.174298062732296727e-02
-1.431797600783731310e-04,-3.807244193156845871e-04,-6.508713790008926504e-04,-9.398175858792815222e-04,-1.239775754537512150e-03,-1.560154310076532604e-03,-1.860910224305730581e-03,-2.145073977118394388e-03,-2.422160304086984350e-03,-2.695142272477933209e-03,-2.965125295283454684e-03,-3.231922853917312214e-03,-3.493663875133637582e-03,-3.750875907191423414e-03,-4.004786844560630395e-03,-4.255431742333604800e-03,-4.501529018480544993e-03,-4.744780744978909816e-03,-4.985125156925260953e-03,-5.221159383456930661e-03,-5.453524337379433810e-03,-5.682963881178017783e-03,-5.908967904446711314e-03,-6.131741411206669858e-03,-6.352270445234510857e-03,-6.570578350791733864e-03,-6.786438635782645820e-03,-6.999902160144477227e-03,-7.211249282819833829e-03,-7.420240411978117241e-03,-7.626462324421703562e-03,-7.830432994942846878e-03,-8.032526516687970089e-03,-8.232357940068229032e-03,-8.430269421312081360e-03,-8.626880952331853966e-03,-8.821791264027382257e-03,-9.014856536674919693e-03,-9.206500551083489012e-03,-9.396533985250633131e-03,-9.584700069145727155e-03,-9.771281095107192671e-03,-9.956454791474620217e-03,-1.014017618335756252e-02,-1.032252651648548313e-02,-1.050370862418798998e-02,-1.068380390082861175e-02,-1.086298466671626814e-02,-1.104057618456144585e-02,-1.121709859421928662e-02,-1.139241819692602721e-02,-1.156644221889236747e-02,-1.173945851367558420e-02,-1.191152215656496142e-02,-1.208251539947512339e-02,-1.225263387340673471e-02,-1.242198489331001500e-02,-1.259043003058179025e-02,-1.275799224601190975e-02,-1.292476007384610499e-02,-1.309069190409026771e-02,-1.325576773860103440e-02,-1.342005590625304674e-02,-1.358363499874535793e-02,-1.374650607011023394e-02,-1.390865194225034476e-02,-1.407015207417755889e-02,-1.423102185053752057e-02,-1.439116865811523177e-02,-1.455062799299539425e-02,-1.470946224808320629e-02,-1.486760275942583705e-02,-1.502506321486471452e-02,-1.518193755447292195e-02,-1.533820969462984345e-02,-1.549386454088950635e-02,-1.568343570357965538e-02,-1.587244894492406688e-02,-1.606087630392279142e-02,-1.624872227376525369e-02,-1.643600714613279237e-02,-1.662273703047551648e-02,-1.680890172021842419e-02,-1.699452291772797843e-02,-1.717963906287279033e-02,-1.736423634801395263e-02,-1.754830874591910284e-02,-1.773189375231981266e-02,-1.791531711558946860e-02,-1.809821795457939447e-02,-1.828028900255668221e-02,-1.846187620476767710e-02,-1.864396828143780049e-02,-1.882490599857221392e-02,-1.901208669182209016e-02,-1.920081123268773532e-02
-3.195941238575946211e-03,-7.826698172328188166e-03,-1.307595142006048525e-02,-1.869531544864355688e-02,-2.450807056462309466e-02,-3.006723957962377167e-02,-3.527461876050132228e-02,-4.019694657057105297e-02,-4.499106203827485384e-02,-4.965328276627029719e-02,-5.424733032944801386e-02,-5.878457684319798870e-02,-6.324675431889358046e-02,-6.763721117245445613e-02,-7.197970096716638233e-02,-7.627076079625758065e-02,-8.047950343957094299e-02,-8.464759900053410446e-02,-8.876523542098301023e-02,-9.279860922149379965e-02,-9.676801703878924743e-02,-1.006877796514979023e-01,-1.045478302874322668e-01,-1.083585776623786912e-01,-1.123402110607375354e-01,-1.160843990169410367e-01,-1.197931758200737606e-01,-1.234601889140871933e-01,-1.270899156173452560e-01,-1.306807571937513568e-01,-1.342226355943482441e-01,-1.377272043089816655e-01,-1.412046096992380373e-01,-1.446476919340335121e-01,-1.480632497619794319e-01,-1.514612442184986307e-01,-1.548326618639692120e-01,-1.581760145129940676e-01,-1.614955903995111963e-01,-1.647878809355035334e-01,-1.680527324222730878e-01,-1.712933880406886100e-01,-1.745128115615321440e-01,-1.777142849029960670e-01,-1.808974340533257841e-01,-1.840634099691360603e-01,-1.872152238869714824e-01,-1.903490215162253474e-01,-1.934635727136535810e-01,-1.965628110671909234e-01,-1.996451634327791602e-01,-2.027103050155632802e-01,-2.057627358433776477e-01,-2.088029893893238453e-01,-2.116779615774508627e-01,-2.145420975186984047e-01,-2.175478915353453446e-01,-2.205421979788248221e-01,-2.234741100276118608e-01,-2.263943775960929605e-01,-2.293043069796467937e-01,-2.322043628319401531e-01,-2.350945898889173213e-01,-2.379769550255950439e-01,-2.408518504066121113e-01,-2.437184100570210510e-01,-2.465777067697539626e-01,-2.494303933395180528e-01,-2.522761210916203978e-01,-2.549637218425130913e-01,-2.576457959560361499e-01,-2.603228809762654916e-01,-2.629954435685722958e-01,-2.656653233634074240e-01,-2.683339351417237117e-01,-2.710039502365404473e-01,-2.736794937132188688e-01,-2.761630144934285602e-01,-2.786656352603847919e-01,-2.811943647167836624e-01,-2.837549036518615675e-01,-2.865564338466423666e-01,-2.891958819104791800e-01,-2.918804781751727084e-01,-2.946135412723409619e-01,-2.971938250286623173e-01,-2.998254818657501986e-01,-3.025102129625788505e-01,-3.052487174952449589e-01,-3.080428659663645430e-01,-3.108951503138225325e-01,-3.138116889220095573e-01,-3.167968990088504411e-01,-3.198569538731379502e-01,-3.229975739200407481e-01,-3.262247436290806046e-01
